svm_type c_svc
kernel_type rbf
gamma 0.166667
nr_class 2
total_sv 530
rho -0.275343
label 0 1
nr_sv 266 264
SV
1 1:1 5:1 6:1 
1 1:1 5:1 6:1 
1 1:1 5:1 6:1 
1 1:1 5:1 6:1 
1 1:1 5:1 6:1 
1 1:1 5:1 6:1 
1 1:1 2:1 5:1 6:1 
1 1:1 2:1 5:1 6:1 
1 1:1 5:1 6:1 
1 1:1 5:1 6:1 
1 1:1 5:1 6:1 
1 1:1 5:1 6:1 
1 1:1 5:1 6:1 
1 1:1 5:1 6:1 
1 1:1 5:1 6:1 
1 1:1 5:1 6:1 
1 1:1 5:1 6:1 
1 1:1 5:1 6:1 
1 1:1 5:1 6:1 
1 1:1 5:1 6:1 
1 1:1 5:1 6:1 
1 0:1 1:1 
0.966654038095464 1:1 5:1 
1 1:1 5:1 
1 1:1 5:1 
0.918427861199452 1:1 6:1 
1 1:1 6:1 
1 1:1 5:1 
1 1:1 6:1 
1 1:1 2:1 5:1 6:1 
1 1:1 2:1 5:1 6:1 
1 0:1 1:1 
1 0:1 1:1 2:1 5:1 
1 0:1 1:1 2:1 6:1 
1 1:1 2:1 5:1 6:1 
0.4441094367763992 0:1 5:1 
1 0:1 6:1 
1 0:1 6:1 
1 0:1 5:1 
1 0:1 5:1 
1 0:1 6:1 
1 0:1 5:1 
0.5219714025814098 0:1 
0.3894441270291325 0:1 
1 1:1 6:1 
1 1:1 6:1 
1 1:1 5:1 
1 1:1 6:1 
1 1:1 6:1 
1 1:1 5:1 
1 1:1 5:1 
1 1:1 6:1 
1 1:1 6:1 
1 1:1 5:1 
1 1:1 6:1 
1 1:1 5:1 
1 1:1 6:1 
1 1:1 6:1 
1 1:1 6:1 
1 1:1 2:1 5:1 6:1 
1 1:1 2:1 3:1 6:1 
1 1:1 2:1 3:1 6:1 
0.253048608684028 1:1 2:1 3:1 5:1 
1 1:1 2:1 3:1 6:1 
1 1:1 2:1 3:1 5:1 6:1 
1 1:1 2:1 5:1 6:1 
1 1:1 2:1 6:1 
1 1:1 2:1 6:1 
1 1:1 2:1 6:1 
1 1:1 2:1 6:1 
1 1:1 2:1 6:1 
1 1:1 2:1 6:1 
1 1:1 2:1 6:1 
1 1:1 2:1 6:1 
1 1:1 2:1 6:1 
1 1:1 2:1 6:1 
1 1:1 2:1 6:1 
1 1:1 5:1 6:1 
1 1:1 5:1 6:1 
1 1:1 5:1 6:1 
1 1:1 2:1 6:1 
0.7123313495310472 1:1 2:1 5:1 
1 1:1 2:1 6:1 
1 1:1 2:1 6:1 
1 1:1 2:1 5:1 
1 1:1 2:1 5:1 
1 1:1 2:1 6:1 
1 1:1 2:1 5:1 
1 1:1 2:1 5:1 
1 1:1 2:1 5:1 
1 1:1 2:1 6:1 
1 1:1 5:1 
1 1:1 5:1 
1 1:1 5:1 
1 1:1 5:1 
1 1:1 6:1 
1 1:1 6:1 
1 1:1 5:1 
1 1:1 5:1 6:1 
1 1:1 5:1 6:1 
1 1:1 5:1 
1 1:1 6:1 
1 1:1 5:1 
1 1:1 5:1 
1 1:1 5:1 6:1 
1 1:1 2:1 5:1 
1 1:1 2:1 6:1 
1 1:1 2:1 5:1 
1 1:1 2:1 6:1 
1 1:1 2:1 5:1 
1 1:1 2:1 6:1 
1 1:1 2:1 5:1 
1 1:1 2:1 6:1 
1 1:1 2:1 5:1 
1 1:1 2:1 6:1 
1 1:1 2:1 5:1 
1 1:1 2:1 6:1 
1 1:1 2:1 5:1 6:1 
1 1:1 2:1 5:1 6:1 
1 1:1 2:1 5:1 6:1 
1 1:1 2:1 5:1 6:1 
1 1:1 5:1 6:1 
1 1:1 5:1 
1 1:1 6:1 
1 1:1 5:1 6:1 
1 1:1 5:1 6:1 
1 1:1 2:1 5:1 
1 1:1 2:1 6:1 
1 1:1 2:1 5:1 
1 1:1 2:1 5:1 
1 1:1 2:1 6:1 
1 1:1 2:1 5:1 
1 1:1 2:1 5:1 
1 1:1 2:1 6:1 
1 1:1 2:1 5:1 
1 1:1 2:1 5:1 
1 1:1 2:1 6:1 
1 1:1 2:1 5:1 
1 1:1 2:1 5:1 
1 1:1 2:1 5:1 
1 1:1 2:1 5:1 
1 1:1 2:1 6:1 
1 1:1 2:1 5:1 6:1 
1 1:1 2:1 5:1 
1 1:1 2:1 6:1 
1 1:1 2:1 5:1 
1 1:1 2:1 6:1 
1 1:1 2:1 5:1 
1 1:1 2:1 6:1 
1 1:1 2:1 5:1 
1 1:1 2:1 6:1 
1 1:1 2:1 5:1 
1 1:1 2:1 6:1 
0.9923549146848674 1:1 2:1 5:1 
1 1:1 6:1 
1 1:1 6:1 
1 1:1 2:1 5:1 6:1 
1 1:1 2:1 5:1 6:1 
1 0:1 1:1 2:1 6:1 
1 1:1 2:1 5:1 6:1 
0.1996008041934993 1:1 2:1 6:1 
1 1:1 2:1 3:1 5:1 6:1 
1 1:1 2:1 3:1 5:1 6:1 
1 1:1 2:1 3:1 5:1 6:1 
1 1:1 2:1 3:1 5:1 6:1 
1 1:1 2:1 3:1 5:1 6:1 
1 1:1 2:1 3:1 5:1 6:1 
1 1:1 2:1 3:1 5:1 6:1 
1 1:1 2:1 3:1 5:1 6:1 
1 1:1 2:1 3:1 5:1 6:1 
1 1:1 
1 1:1 2:1 3:1 5:1 6:1 
1 1:1 2:1 3:1 5:1 6:1 
1 1:1 2:1 3:1 5:1 6:1 
1 1:1 2:1 3:1 5:1 6:1 
0.8877640063483437 1:1 2:1 3:1 
1 1:1 2:1 3:1 
1 1:1 2:1 3:1 
1 1:1 2:1 3:1 
1 1:1 2:1 3:1 5:1 6:1 
1 1:1 2:1 3:1 
1 1:1 2:1 3:1 
1 1:1 2:1 3:1 5:1 6:1 
1 1:1 2:1 3:1 
1 1:1 2:1 3:1 
1 1:1 2:1 3:1 5:1 6:1 
1 1:1 2:1 3:1 
1 1:1 
1 1:1 
1 1:1 
1 1:1 
1 1:1 
1 1:1 
1 1:1 2:1 5:1 6:1 
1 1:1 
1 1:1 
1 1:1 
1 1:1 
1 1:1 
1 1:1 
1 1:1 
1 1:1 
1 1:1 
1 1:1 
1 1:1 
1 1:1 
1 1:1 
1 1:1 
1 1:1 
1 1:1 
1 1:1 
1 1:1 
1 1:1 
1 1:1 
1 1:1 
1 1:1 
1 1:1 
1 1:1 2:1 5:1 6:1 
1 1:1 2:1 
1 1:1 2:1 
1 1:1 2:1 
1 1:1 2:1 
1 1:1 2:1 
1 1:1 2:1 
1 1:1 2:1 
1 1:1 2:1 5:1 6:1 
1 1:1 2:1 
1 1:1 2:1 5:1 6:1 
1 1:1 2:1 
1 1:1 2:1 
1 1:1 2:1 
1 1:1 2:1 
1 1:1 2:1 5:1 6:1 
1 1:1 2:1 
1 1:1 2:1 
1 1:1 2:1 
1 1:1 2:1 
1 1:1 2:1 
1 1:1 2:1 
1 1:1 2:1 
1 1:1 2:1 
1 1:1 2:1 
1 1:1 2:1 
1 1:1 2:1 
1 1:1 2:1 
1 1:1 2:1 
1 1:1 2:1 
1 1:1 2:1 
1 1:1 2:1 
1 1:1 2:1 
1 1:1 2:1 
1 1:1 2:1 
1 1:1 2:1 
1 1:1 2:1 
1 1:1 2:1 
1 1:1 2:1 
1 1:1 2:1 
1 1:1 2:1 
0.08463420638778113 1:1 2:1 
1 1:1 
1 1:1 
1 1:1 
1 1:1 
0.06315487892258329 1:1 
1 1:1 2:1 5:1 6:1 
0.08678578518901124 1:1 2:1 
-1 1:1 
-1 1:1 
-1 1:1 
-1 1:1 
-1 1:1 
-0.9043302463837964 0:1 1:1 5:1 
-1 1:1 
-1 1:1 
-1 1:1 
-1 1:1 
-1 1:1 2:1 3:1 6:1 
-1 1:1 2:1 
-1 1:1 2:1 
-1 1:1 2:1 5:1 
-1 1:1 2:1 
-1 1:1 2:1 
-1 1:1 2:1 3:1 6:1 
-1 1:1 2:1 
-1 1:1 2:1 5:1 
-1 1:1 2:1 
-1 1:1 2:1 
-1 1:1 2:1 
-1 1:1 2:1 
-1 1:1 2:1 
-1 1:1 2:1 
-1 1:1 2:1 
-1 1:1 2:1 
-1 1:1 2:1 
-1 1:1 2:1 3:1 6:1 
-1 1:1 2:1 3:1 6:1 
-1 1:1 2:1 3:1 6:1 
-1 1:1 2:1 3:1 6:1 
-1 1:1 2:1 
-1 1:1 2:1 5:1 
-1 1:1 2:1 
-1 1:1 2:1 
-1 1:1 2:1 
-1 1:1 2:1 
-1 1:1 2:1 
-1 1:1 2:1 
-1 1:1 2:1 
-1 1:1 2:1 
-1 1:1 2:1 
-1 1:1 
-1 1:1 
-1 1:1 
-1 1:1 
-1 1:1 
-0.2743705592096498 1:1 5:1 6:1 
-1 1:1 
-1 1:1 
-1 1:1 
-1 1:1 
-1 1:1 
-1 1:1 2:1 3:1 6:1 
-1 1:1 2:1 
-1 1:1 2:1 
-1 1:1 2:1 
-1 1:1 2:1 
-1 1:1 
-1 1:1 5:1 6:1 
-1 1:1 
-1 1:1 
-1 1:1 
-1 1:1 
-1 1:1 
-1 1:1 
-1 1:1 
-1 1:1 5:1 6:1 
-1 1:1 
-1 1:1 
-1 1:1 
-1 1:1 
-1 1:1 
-1 1:1 5:1 6:1 
-1 1:1 
-1 1:1 
-1 1:1 
-1 1:1 2:1 
-1 1:1 2:1 
-1 1:1 2:1 
-1 1:1 2:1 
-1 1:1 
-1 1:1 2:1 6:1 
-1 0:1 1:1 5:1 
-0.4770457700371897 0:1 1:1 6:1 
-1 1:1 
-1 1:1 6:1 
-1 0:1 1:1 5:1 
-1 1:1 6:1 
-1 1:1 
-1 1:1 6:1 
-1 1:1 5:1 6:1 
-1 1:1 6:1 
-1 1:1 
-1 0:1 1:1 5:1 
-1 1:1 
-1 1:1 2:1 
-1 1:1 2:1 
-1 0:1 1:1 5:1 
-1 1:1 
-1 1:1 5:1 
-1 1:1 
-1 1:1 5:1 
-1 1:1 5:1 
-1 1:1 5:1 
-1 1:1 2:1 3:1 6:1 
-1 1:1 2:1 3:1 5:1 
-1 1:1 2:1 3:1 6:1 
-1 1:1 2:1 3:1 5:1 
-1 1:1 2:1 
-1 1:1 2:1 5:1 
-1 1:1 2:1 5:1 
-1 1:1 2:1 
-1 1:1 2:1 6:1 
-1 1:1 2:1 5:1 
-1 1:1 2:1 
-1 1:1 2:1 6:1 
-1 1:1 2:1 
-1 1:1 2:1 5:1 
-1 1:1 2:1 
-1 1:1 2:1 
-1 1:1 2:1 
-1 1:1 2:1 5:1 
-1 1:1 2:1 
-1 1:1 2:1 
-1 1:1 2:1 
-1 1:1 2:1 
-1 1:1 2:1 5:1 
-1 1:1 2:1 
-1 1:1 2:1 
-1 1:1 2:1 6:1 
-1 1:1 2:1 6:1 
-1 1:1 2:1 5:1 
-1 1:1 2:1 
-1 1:1 5:1 6:1 
-1 1:1 2:1 6:1 
-1 1:1 5:1 6:1 
-1 1:1 
-1 1:1 5:1 6:1 
-1 1:1 2:1 6:1 
-1 1:1 5:1 6:1 
-1 1:1 
-1 1:1 2:1 6:1 
-1 1:1 
-1 1:1 2:1 6:1 
-1 1:1 2:1 6:1 
-1 1:1 2:1 
-1 1:1 2:1 6:1 
-1 1:1 2:1 6:1 
-1 1:1 6:1 
-1 0:1 1:1 6:1 
-1 0:1 1:1 6:1 
-1 0:1 1:1 6:1 
-1 0:1 1:1 5:1 
-1 0:1 1:1 6:1 
-0.8832820570558224 0:1 1:1 
-1 0:1 1:1 6:1 
-0.1330860842201754 0:1 1:1 
-1 1:1 2:1 3:1 6:1 
-1 1:1 2:1 5:1 
-1 1:1 2:1 6:1 
-1 1:1 5:1 6:1 
-0.8962427364566583 0:1 1:1 2:1 6:1 
-1 0:1 1:1 2:1 6:1 
-0.8785390377456744 0:1 1:1 2:1 6:1 
-1 0:1 1:1 2:1 5:1 
-1 1:1 2:1 5:1 
-1 1:1 2:1 5:1 
-0.7235174376183147 0:1 1:1 2:1 5:1 
-1 1:1 2:1 5:1 
-1 1:1 2:1 6:1 
-1 1:1 2:1 5:1 
-1 1:1 5:1 6:1 
-1 1:1 5:1 6:1 
-1 1:1 5:1 6:1 
-1 1:1 5:1 6:1 
-1 1:1 5:1 6:1 
-1 1:1 5:1 6:1 
-1 1:1 5:1 6:1 
-1 1:1 2:1 3:1 5:1 6:1 
-0.2516326991626597 0:1 1:1 2:1 3:1 
-1 1:1 2:1 3:1 5:1 6:1 
-1 0:1 1:1 2:1 3:1 
-1 0:1 1:1 2:1 3:1 
-1 0:1 1:1 2:1 3:1 
-1 1:1 2:1 3:1 5:1 6:1 
-1 1:1 2:1 3:1 5:1 6:1 
-1 1:1 2:1 3:1 5:1 6:1 
-1 1:1 2:1 3:1 5:1 6:1 
-1 1:1 2:1 3:1 5:1 6:1 
-1 1:1 2:1 3:1 5:1 6:1 
-1 1:1 2:1 3:1 5:1 6:1 
-1 1:1 2:1 3:1 5:1 6:1 
-1 1:1 2:1 
-1 1:1 5:1 6:1 
-1 1:1 5:1 6:1 
-1 1:1 5:1 6:1 
-1 1:1 5:1 6:1 
-1 1:1 5:1 6:1 
-1 1:1 5:1 6:1 
-1 1:1 2:1 3:1 5:1 6:1 
-1 1:1 5:1 6:1 
-1 1:1 2:1 
-1 1:1 5:1 6:1 
-1 1:1 5:1 6:1 
-1 1:1 2:1 3:1 5:1 6:1 
-1 1:1 2:1 3:1 5:1 6:1 
-0.4925179483275065 1:1 2:1 5:1 6:1 
-1 1:1 2:1 
-1 1:1 2:1 5:1 6:1 
-1 1:1 2:1 5:1 6:1 
-1 1:1 5:1 6:1 
-1 1:1 5:1 6:1 
-1 1:1 2:1 5:1 6:1 
-1 1:1 2:1 5:1 6:1 
-1 1:1 5:1 6:1 
-1 1:1 5:1 6:1 
-1 1:1 2:1 5:1 6:1 
-1 1:1 2:1 5:1 6:1 
-1 1:1 2:1 5:1 6:1 
-1 1:1 2:1 5:1 6:1 
-1 1:1 2:1 5:1 6:1 
-1 1:1 2:1 5:1 6:1 
-1 1:1 2:1 5:1 6:1 
-1 1:1 2:1 5:1 6:1 
-1 1:1 2:1 5:1 6:1 
-1 1:1 2:1 5:1 6:1 
-1 1:1 2:1 5:1 6:1 
-1 1:1 2:1 5:1 6:1 
-1 1:1 2:1 5:1 6:1 
-1 1:1 2:1 5:1 6:1 
-1 1:1 2:1 5:1 6:1 
-1 1:1 2:1 5:1 6:1 
-1 1:1 2:1 5:1 6:1 
-1 1:1 2:1 5:1 6:1 
-1 1:1 5:1 6:1 
-1 1:1 5:1 6:1 
-1 1:1 2:1 5:1 6:1 
-1 1:1 5:1 6:1 
-1 1:1 2:1 5:1 6:1 
-1 1:1 5:1 6:1 
-1 1:1 2:1 5:1 6:1 
-1 1:1 5:1 6:1 
-1 1:1 5:1 6:1 
-1 1:1 2:1 5:1 6:1 
-1 1:1 2:1 3:1 5:1 6:1 
-0.6826256952301197 1:1 2:1 3:1 5:1 6:1 
-1 1:1 2:1 5:1 6:1 
-1 1:1 2:1 5:1 6:1 
-1 1:1 2:1 5:1 6:1 
-1 1:1 2:1 5:1 6:1 
-1 1:1 2:1 5:1 6:1 
-1 1:1 5:1 6:1 
-1 1:1 5:1 6:1 
-1 1:1 5:1 6:1 
-1 1:1 5:1 6:1 
-1 1:1 5:1 6:1 
-1 1:1 5:1 6:1 
-1 1:1 2:1 5:1 6:1 
-1 1:1 2:1 5:1 6:1 
-1 1:1 2:1 5:1 6:1 
-1 1:1 2:1 5:1 6:1 
-0.9230911481754512 1:1 2:1 5:1 6:1 
